digraph Tree {
node [shape=box] ;
0 [label="X[1] <= 0.5\ngini = 0.4824\nsamples = 714\nvalue = [424, 290]"] ;
1 [label="X[0] <= 1.5\ngini = 0.3263\nsamples = 453\nvalue = [360, 93]"] ;
0 -> 1 [labeldistance=2.5, labelangle=45, headlabel="True"] ;
2 [label="X[2] <= 5.5\ngini = 0.4784\nsamples = 101\nvalue = [61, 40]"] ;
1 -> 2 ;
3 [label="X[2] <= 1.5\ngini = 0.4998\nsamples = 51\nvalue = [25, 26]"] ;
2 -> 3 ;
4 [label="gini = 0.32\nsamples = 5\nvalue = [1, 4]"] ;
3 -> 4 ;
5 [label="X[2] <= 2.5\ngini = 0.4991\nsamples = 46\nvalue = [24, 22]"] ;
3 -> 5 ;
6 [label="gini = 0.2449\nsamples = 7\nvalue = [6, 1]"] ;
5 -> 6 ;
7 [label="X[2] <= 4.5\ngini = 0.497\nsamples = 39\nvalue = [18, 21]"] ;
5 -> 7 ;
8 [label="X[2] <= 3.5\ngini = 0.4764\nsamples = 23\nvalue = [9, 14]"] ;
7 -> 8 ;
9 [label="gini = 0.4898\nsamples = 14\nvalue = [6, 8]"] ;
8 -> 9 ;
10 [label="gini = 0.4444\nsamples = 9\nvalue = [3, 6]"] ;
8 -> 10 ;
11 [label="gini = 0.4922\nsamples = 16\nvalue = [9, 7]"] ;
7 -> 11 ;
12 [label="gini = 0.4032\nsamples = 50\nvalue = [36, 14]"] ;
2 -> 12 ;
13 [label="X[2] <= 1.5\ngini = 0.2558\nsamples = 352\nvalue = [299, 53]"] ;
1 -> 13 ;
14 [label="X[0] <= 2.5\ngini = 0.4224\nsamples = 66\nvalue = [46, 20]"] ;
13 -> 14 ;
15 [label="gini = 0.48\nsamples = 15\nvalue = [6, 9]"] ;
14 -> 15 ;
16 [label="gini = 0.3383\nsamples = 51\nvalue = [40, 11]"] ;
14 -> 16 ;
17 [label="X[2] <= 4.5\ngini = 0.2041\nsamples = 286\nvalue = [253, 33]"] ;
13 -> 17 ;
18 [label="X[0] <= 2.5\ngini = 0.233\nsamples = 208\nvalue = [180, 28]"] ;
17 -> 18 ;
19 [label="X[2] <= 3.5\ngini = 0.1372\nsamples = 54\nvalue = [50, 4]"] ;
18 -> 19 ;
20 [label="X[2] <= 2.5\ngini = 0.0526\nsamples = 37\nvalue = [36, 1]"] ;
19 -> 20 ;
21 [label="gini = 0.1172\nsamples = 16\nvalue = [15, 1]"] ;
20 -> 21 ;
22 [label="gini = 0.0\nsamples = 21\nvalue = [21, 0]"] ;
20 -> 22 ;
23 [label="gini = 0.2907\nsamples = 17\nvalue = [14, 3]"] ;
19 -> 23 ;
24 [label="X[2] <= 2.5\ngini = 0.2631\nsamples = 154\nvalue = [130, 24]"] ;
18 -> 24 ;
25 [label="gini = 0.1896\nsamples = 66\nvalue = [59, 7]"] ;
24 -> 25 ;
26 [label="X[2] <= 3.5\ngini = 0.3117\nsamples = 88\nvalue = [71, 17]"] ;
24 -> 26 ;
27 [label="gini = 0.3157\nsamples = 56\nvalue = [45, 11]"] ;
26 -> 27 ;
28 [label="gini = 0.3047\nsamples = 32\nvalue = [26, 6]"] ;
26 -> 28 ;
29 [label="X[2] <= 5.5\ngini = 0.12\nsamples = 78\nvalue = [73, 5]"] ;
17 -> 29 ;
30 [label="X[0] <= 2.5\ngini = 0.074\nsamples = 26\nvalue = [25, 1]"] ;
29 -> 30 ;
31 [label="gini = 0.0\nsamples = 9\nvalue = [9, 0]"] ;
30 -> 31 ;
32 [label="gini = 0.1107\nsamples = 17\nvalue = [16, 1]"] ;
30 -> 32 ;
33 [label="X[0] <= 2.5\ngini = 0.142\nsamples = 52\nvalue = [48, 4]"] ;
29 -> 33 ;
34 [label="gini = 0.1723\nsamples = 21\nvalue = [19, 2]"] ;
33 -> 34 ;
35 [label="gini = 0.1207\nsamples = 31\nvalue = [29, 2]"] ;
33 -> 35 ;
36 [label="X[0] <= 2.5\ngini = 0.3702\nsamples = 261\nvalue = [64, 197]"] ;
0 -> 36 [labeldistance=2.5, labelangle=-45, headlabel="False"] ;
37 [label="X[0] <= 1.5\ngini = 0.1068\nsamples = 159\nvalue = [9, 150]"] ;
36 -> 37 ;
38 [label="X[2] <= 1.5\ngini = 0.0681\nsamples = 85\nvalue = [3, 82]"] ;
37 -> 38 ;
39 [label="gini = 0.1653\nsamples = 11\nvalue = [1, 10]"] ;
38 -> 39 ;
40 [label="X[2] <= 2.5\ngini = 0.0526\nsamples = 74\nvalue = [2, 72]"] ;
38 -> 40 ;
41 [label="gini = 0.0\nsamples = 16\nvalue = [0, 16]"] ;
40 -> 41 ;
42 [label="X[2] <= 3.5\ngini = 0.0666\nsamples = 58\nvalue = [2, 56]"] ;
40 -> 42 ;
43 [label="gini = 0.2188\nsamples = 8\nvalue = [1, 7]"] ;
42 -> 43 ;
44 [label="X[2] <= 5.5\ngini = 0.0392\nsamples = 50\nvalue = [1, 49]"] ;
42 -> 44 ;
45 [label="gini = 0.0\nsamples = 24\nvalue = [0, 24]"] ;
44 -> 45 ;
46 [label="gini = 0.074\nsamples = 26\nvalue = [1, 25]"] ;
44 -> 46 ;
47 [label="X[2] <= 4.5\ngini = 0.149\nsamples = 74\nvalue = [6, 68]"] ;
37 -> 47 ;
48 [label="X[2] <= 1.5\ngini = 0.1049\nsamples = 54\nvalue = [3, 51]"] ;
47 -> 48 ;
49 [label="gini = 0.0\nsamples = 14\nvalue = [0, 14]"] ;
48 -> 49 ;
50 [label="X[2] <= 3.5\ngini = 0.1388\nsamples = 40\nvalue = [3, 37]"] ;
48 -> 50 ;
51 [label="X[2] <= 2.5\ngini = 0.18\nsamples = 30\nvalue = [3, 27]"] ;
50 -> 51 ;
52 [label="gini = 0.142\nsamples = 13\nvalue = [1, 12]"] ;
51 -> 52 ;
53 [label="gini = 0.2076\nsamples = 17\nvalue = [2, 15]"] ;
51 -> 53 ;
54 [label="gini = 0.0\nsamples = 10\nvalue = [0, 10]"] ;
50 -> 54 ;
55 [label="X[2] <= 5.5\ngini = 0.255\nsamples = 20\nvalue = [3, 17]"] ;
47 -> 55 ;
56 [label="gini = 0.2449\nsamples = 7\nvalue = [1, 6]"] ;
55 -> 56 ;
57 [label="gini = 0.2604\nsamples = 13\nvalue = [2, 11]"] ;
55 -> 57 ;
58 [label="X[2] <= 5.5\ngini = 0.4969\nsamples = 102\nvalue = [55, 47]"] ;
36 -> 58 ;
59 [label="X[2] <= 4.5\ngini = 0.4999\nsamples = 93\nvalue = [47, 46]"] ;
58 -> 59 ;
60 [label="X[2] <= 2.5\ngini = 0.4999\nsamples = 87\nvalue = [43, 44]"] ;
59 -> 60 ;
61 [label="X[2] <= 1.5\ngini = 0.4989\nsamples = 63\nvalue = [30, 33]"] ;
60 -> 61 ;
62 [label="gini = 0.4997\nsamples = 43\nvalue = [21, 22]"] ;
61 -> 62 ;
63 [label="gini = 0.495\nsamples = 20\nvalue = [9, 11]"] ;
61 -> 63 ;
64 [label="X[2] <= 3.5\ngini = 0.4965\nsamples = 24\nvalue = [13, 11]"] ;
60 -> 64 ;
65 [label="gini = 0.4922\nsamples = 16\nvalue = [9, 7]"] ;
64 -> 65 ;
66 [label="gini = 0.5\nsamples = 8\nvalue = [4, 4]"] ;
64 -> 66 ;
67 [label="gini = 0.4444\nsamples = 6\nvalue = [4, 2]"] ;
59 -> 67 ;
68 [label="gini = 0.1975\nsamples = 9\nvalue = [8, 1]"] ;
58 -> 68 ;
}
